{
  "input_sequences": [],
  "inputs": [
    {
      "name": "node_0",
      "variables": [
        {
          "name": "variable_0",
          "offset": 0,
          "scale": 1
        },
        {
          "name": "variable_1",
          "offset": 0,
          "scale": 1
        },
        {
          "name": "variable_2",
          "offset": 0,
          "scale": 1
        },
        {
          "name": "variable_3",
          "offset": 0,
          "scale": 1
        },
        {
          "name": "variable_4",
          "offset": 0,
          "scale": 1
        }
      ]
    }
  ],
  "layers": [
    {
      "activation": "sigmoid",
      "architecture": "dense",
      "bias": [
        0.0,
        0.0,
        0.0,
        0.0,
        0.0,
        0.0,
        0.0,
        0.0,
        0.0,
        0.0
      ],
      "weights": [
        -0.06293665617704391,
        -0.027688315138220787,
        0.1289326399564743,
        -0.0017226486233994365,
        -0.08964268118143082,
        0.0824008360505104,
        0.00760602718219161,
        0.04424064978957176,
        -0.03414372354745865,
        0.05507299304008484,
        -0.06004210188984871,
        -0.02251129038631916,
        -0.03746230900287628,
        -0.07860410958528519,
        -0.10906212776899338,
        -0.04935165494680405,
        -0.0172935351729393,
        0.0016265747835859656,
        0.005606420803815126,
        -0.04497933015227318,
        -0.023768329992890358,
        -0.023958731442689896,
        0.04616549238562584,
        0.05317940190434456,
        -0.02129773423075676,
        -0.06849151849746704,
        0.002348997164517641,
        0.021873045712709427,
        0.008677600882947445,
        -0.017551394179463387,
        -0.01107157301157713,
        0.04222602769732475,
        -0.07913782447576523,
        0.020662058144807816,
        0.011511088348925114,
        0.02257332019507885,
        -0.04021282121539116,
        -0.011081206612288952,
        0.046969082206487656,
        -0.08876767009496689,
        -0.0685865581035614,
        -0.04069042578339577,
        0.04047517850995064,
        0.04247575253248215,
        0.021475499495863914,
        0.07705369591712952,
        -0.00040566534153185785,
        -0.01207700278609991,
        -0.008777334354817867,
        0.000947322347201407
      ]
    },
    {
      "activation": "sigmoid",
      "architecture": "dense",
      "bias": [
        0.0,
        0.0,
        0.0,
        0.0,
        0.0,
        0.0,
        0.0,
        0.0,
        0.0,
        0.0
      ],
      "weights": [
        -0.04557395726442337,
        -0.01368797104805708,
        0.027791691944003105,
        -0.08345842361450195,
        0.1215643435716629,
        0.09786273539066315,
        0.06615568697452545,
        -0.03856806084513664,
        0.00013139685324858874,
        0.068051278591156,
        0.10810704529285431,
        -0.007822335697710514,
        -0.0003826701722573489,
        -0.016515877097845078,
        0.05208742618560791,
        -0.018761368468403816,
        0.05698743462562561,
        -0.04165161773562431,
        -0.02135707065463066,
        0.012268341146409512,
        0.0068047228269279,
        0.01866997219622135,
        0.018541961908340454,
        -0.06165177375078201,
        -0.03670079633593559,
        0.0029948505107313395,
        0.07759686559438705,
        -0.03801928833127022,
        -0.004189339932054281,
        0.060671012848615646,
        -0.026430165395140648,
        0.017178867012262344,
        -0.0011741877533495426,
        -0.006421127822250128,
        0.01767764985561371,
        -0.08746962994337082,
        0.008076961152255535,
        -0.03220584616065025,
        0.035093773156404495,
        -0.01161274779587984,
        -0.07525097578763962,
        0.056323517113924026,
        -0.056212421506643295,
        -0.03063162975013256,
        -0.0576954148709774,
        0.06926135718822479,
        0.03412473201751709,
        -0.07893592119216919,
        0.02749636210501194,
        -0.0025076146703213453,
        -0.037757426500320435,
        -0.017034703865647316,
        0.010841763578355312,
        -0.023066498339176178,
        -0.05000486969947815,
        -0.06492036581039429,
        0.005462768487632275,
        -0.047065913677215576,
        -0.00794915296137333,
        -0.08478560298681259,
        -0.008462474681437016,
        -0.014465047977864742,
        0.020946450531482697,
        0.02606978826224804,
        0.04926438257098198,
        0.1363866627216339,
        -0.014485313557088375,
        -0.05320745334029198,
        -0.0014024501433596015,
        0.0024747445713728666,
        0.042844340205192566,
        0.0680156722664833,
        -0.02217067778110504,
        0.029709413647651672,
        0.00017689824744593352,
        0.03193032369017601,
        0.017117762938141823,
        0.056147586554288864,
        0.0035308562219142914,
        -0.010903949849307537,
        0.03919767588376999,
        -0.03174380958080292,
        0.06280580908060074,
        0.03315174952149391,
        -0.09216202050447464,
        -0.021656829863786697,
        -0.02152148447930813,
        0.033101886510849,
        0.04215635731816292,
        0.07305669784545898,
        -0.06741952896118164,
        0.0702519491314888,
        0.02364506945014,
        0.03729277849197388,
        -0.0068827406503260136,
        -0.06894779950380325,
        -0.055306583642959595,
        0.1047208309173584,
        -0.04141649231314659,
        0.021079547703266144
      ]
    },
    {
      "activation": "softmax",
      "architecture": "dense",
      "bias": [
        0.0,
        0.0
      ],
      "weights": [
        0.007811815943568945,
        -0.010644788853824139,
        -0.004661133978515863,
        -0.08407942205667496,
        0.06303327530622482,
        -0.06358680874109268,
        0.0031283479183912277,
        0.04156520962715149,
        -0.018654128536581993,
        -0.07834442704916,
        0.012785856612026691,
        -0.0035531034227460623,
        -0.035145193338394165,
        0.040788181126117706,
        0.06703069061040878,
        -0.03483056277036667,
        -0.018333544954657555,
        -0.01191947516053915,
        -0.017313320189714432,
        -0.05094532296061516
      ]
    }
  ],
  "nodes": [
    {
      "layer_index": 0,
      "sources": [
        3
      ],
      "type": "feed_forward"
    },
    {
      "layer_index": 1,
      "sources": [
        0
      ],
      "type": "feed_forward"
    },
    {
      "layer_index": 2,
      "sources": [
        1
      ],
      "type": "feed_forward"
    },
    {
      "size": 5,
      "sources": [
        0
      ],
      "type": "input"
    }
  ],
  "outputs": {
    "dense_6_0": {
      "labels": [
        "out_0",
        "out_1"
      ],
      "node_index": 2
    }
  }
}
